34 128
34 -0.0585616 0.026921984 -0.1993457 -0.122619286 0.105771296 -0.082377754 0.19426411 -0.163427 -0.0031433264 0.03826147 0.078840576 -0.012640519 -0.09582699 0.07406877 -0.00044817076 0.06934038 -0.007953285 -0.02158935 0.023903035 0.07245274 0.15008155 0.08159018 -0.08240285 -0.030619234 0.08575342 -0.18015514 0.00070744916 -0.07922894 -0.06049016 -0.053167634 -0.13147189 0.10289904 -0.20262966 0.14027753 -0.25102082 -0.08230574 0.21712612 0.063110106 -0.10236121 -0.0069518406 0.1452933 0.10760075 -0.06815302 -0.0010963163 -0.14180325 -0.120233044 0.07400246 -0.06638003 -0.016488796 0.19928306 0.07549883 -0.19502933 0.074686706 0.055114605 -0.13160962 0.024974165 -0.10793248 0.001299225 -0.042686425 -0.13316287 -0.11671103 -0.022052594 0.029668106 0.13304576 0.0049381694 0.10365346 -0.053749565 -0.11403356 -0.05211693 0.17091534 0.0655754 -0.018933097 0.15294631 -0.1374808 -0.15892716 -0.13548419 -0.17079356 0.052664533 0.0537016 0.04686984 -0.11440881 0.16532676 -0.023186464 -0.09190319 -0.1067387 0.05253546 -0.13854456 0.02412655 -0.19244199 0.10075219 -0.12914199 -0.002015684 0.038378067 -0.023516707 -0.076437175 0.108955294 0.10778743 0.049897283 0.07849105 0.10499784 -0.018890431 0.013342897 -0.109355025 0.07583883 -0.040928893 -0.15803723 -0.16836156 0.13017456 -0.1661667 0.08265154 0.030101316 -0.16652432 0.040130325 0.25530806 0.09443924 0.020063333 0.131849 -0.028245417 0.044978935 0.03418472 -0.15990083 0.06802639 -0.20371076 -0.111350514 0.218072 0.009094618 0.11961623 -0.1586902
1 -0.19214796 0.036027465 -0.1506995 -0.14191549 0.2539539 -0.142437 0.1725566 -0.08181298 0.10416482 0.10885851 0.110210754 0.07257554 -0.1953328 0.048714664 -0.023099046 0.18848526 0.054574534 -0.034296587 0.08746001 0.12591803 0.058488168 -0.042671096 -0.027124697 -0.15802677 0.13557671 -0.091522194 -0.113732584 -0.03143067 -0.077530436 -0.00031839943 -0.08758149 0.13722351 -0.013311756 0.22876054 -0.3017122 -0.08870215 0.12143774 0.11057619 -0.15430333 0.057959143 0.091040984 -0.074447736 -0.049701028 -0.10976529 0.008494583 -0.024706399 0.10256113 -0.059958912 -0.04901115 0.048827626 0.037707824 -0.1919143 0.011054541 -0.041303143 -0.15653843 0.08495584 -0.11153549 -0.040395923 -0.10979065 -0.12842278 -0.21538745 -0.061563887 0.037537523 0.029427642 -0.041993704 0.0755706 -0.068255454 -0.15679899 -0.041352473 0.13002014 -0.02880526 -0.012115158 0.06313598 -0.039850716 0.02758302 -0.098360345 -0.19489612 0.11473218 -0.030664358 -0.023737581 -0.09589854 0.07552217 -0.20206621 -0.07952927 -0.040903613 0.12687688 -0.08351954 0.008897355 -0.017112345 -0.0122176325 -0.110879526 0.025587872 -0.07645143 -0.19455244 -0.0060439077 0.09818933 0.0216053 0.014017219 -0.008405498 0.08204239 0.09389861 0.022257028 -0.06228599 0.14347121 -0.12260603 -0.16893688 -0.08613863 0.12896365 0.003270162 0.1489157 0.057837646 -0.11220541 -0.06306625 0.14160098 -0.036897674 0.014311514 0.15502113 -0.10995816 0.00067325786 -0.0147592705 -0.1194542 -0.008728155 -0.25245366 -0.033210777 0.25757858 -0.10079131 0.08100497 -0.123672545
33 -0.07546916 0.028630804 -0.19404866 -0.122008495 0.11913208 -0.090362936 0.18736726 -0.15477656 0.007820414 0.05132549 0.082899876 -0.0061379657 -0.11493444 0.07152698 1.9444764e-05 0.08187854 -0.0043151733 -0.024385396 0.026175765 0.074424736 0.13948914 0.07374338 -0.07740643 -0.04514627 0.09400957 -0.16984372 -0.014707402 -0.070200354 -0.05734119 -0.04336489 -0.121567965 0.10347246 -0.18071704 0.15470935 -0.26189265 -0.08128221 0.20729274 0.06768182 -0.11362749 -0.0013441067 0.13706085 0.08283794 -0.06649777 -0.016990643 -0.12797871 -0.105104916 0.079505645 -0.06550372 -0.015995245 0.18392146 0.07006028 -0.19304459 0.07086994 0.041349486 -0.13768172 0.038803045 -0.11022656 0.0029309993 -0.051487554 -0.13369234 -0.12641563 -0.025456714 0.03378052 0.119210236 -0.0011571571 0.09981993 -0.059302963 -0.12294644 -0.04721989 0.16800961 0.051132225 -0.020052906 0.1445402 -0.12567036 -0.14209463 -0.13563654 -0.17537025 0.059421837 0.04509973 0.03893537 -0.11652021 0.15436895 -0.04268635 -0.08575123 -0.10011952 0.06065034 -0.13346732 0.029209241 -0.16995022 0.08294362 -0.13045764 0.0044731637 0.02333472 -0.043008726 -0.07161702 0.100867204 0.09652606 0.047589943 0.07178854 0.10286199 -0.0029471281 0.011360997 -0.105113104 0.08468931 -0.04977681 -0.16108696 -0.15699984 0.12879637 -0.14684878 0.09018568 0.038052112 -0.15844154 0.024750698 0.24152409 0.079274006 0.023638338 0.12878877 -0.0357947 0.04187072 0.025790865 -0.15374091 0.05890505 -0.21065198 -0.107982695 0.21833882 -0.00025289587 0.11458109 -0.15870559
3 -0.07486283 0.027303802 -0.17154554 -0.10784733 0.125639 -0.07942323 0.16378371 -0.13368598 0.009531905 0.04409429 0.07612419 -0.004002632 -0.102212295 0.054360718 0.00027488996 0.08708043 0.0025561233 -0.016674884 0.03177114 0.07293382 0.111927 0.05189824 -0.065582596 -0.04561791 0.084506035 -0.14135854 -0.017312786 -0.062428314 -0.06283215 -0.044590354 -0.11251445 0.098281056 -0.15814643 0.1559533 -0.24847515 -0.07747005 0.19081353 0.06483523 -0.10868673 0.0068202945 0.12848637 0.06386629 -0.0635469 -0.022096293 -0.100673415 -0.090966985 0.07611021 -0.058667146 -0.022226637 0.16047634 0.063628 -0.18200624 0.054974742 0.027081154 -0.1338079 0.03512948 -0.10864713 -0.0006159359 -0.052832305 -0.12749337 -0.12961999 -0.01793538 0.034457758 0.104618154 -0.007579604 0.08571699 -0.047676105 -0.11169363 -0.049200345 0.1477202 0.045930605 -0.0151602905 0.12679005 -0.10902029 -0.121350065 -0.11967907 -0.16131707 0.06698886 0.03187141 0.024996597 -0.10496774 0.13746212 -0.06406964 -0.07550593 -0.086508416 0.06651896 -0.11195736 0.02310901 -0.14142817 0.072870634 -0.10850791 0.010101016 0.020952739 -0.057617705 -0.061022386 0.094919555 0.08741438 0.038690455 0.059286814 0.09180517 0.008072702 0.014483474 -0.08693648 0.07355241 -0.05480155 -0.1472459 -0.14121675 0.1249387 -0.11719202 0.08239605 0.03355104 -0.14486736 0.019810237 0.20950094 0.056650724 0.017853774 0.11925601 -0.041135993 0.037202816 0.021476796 -0.12914515 0.04625176 -0.20120697 -0.08730348 0.20435254 -0.012529276 0.10536635 -0.13986306
2 -0.1627308 0.035916656 -0.16686182 -0.12970105 0.22383948 -0.12733464 0.18252395 -0.096543334 0.079186425 0.0966209 0.10277152 0.041837126 -0.17092024 0.054764047 -0.017140815 0.15950629 0.041852523 -0.036737923 0.0801122 0.11217736 0.07514427 -0.024149802 -0.040053472 -0.124083646 0.12443255 -0.11179857 -0.08933354 -0.04856584 -0.09029829 -0.01500169 -0.09660924 0.13555935 -0.05644833 0.21668822 -0.3001183 -0.09570327 0.15504017 0.10307025 -0.14383675 0.041922983 0.10690542 -0.043602962 -0.056473825 -0.0819214 -0.026070952 -0.049482208 0.10021991 -0.060123816 -0.048731096 0.08675438 0.040351316 -0.20300773 0.016702194 -0.031677656 -0.15919001 0.07749758 -0.120139025 -0.032666743 -0.090866454 -0.13861527 -0.19940712 -0.04741306 0.03152312 0.06036133 -0.032758962 0.08437342 -0.061283845 -0.1432508 -0.0379479 0.13865732 -0.011167152 -0.020594226 0.07968306 -0.06450451 -0.022160714 -0.10465238 -0.1943618 0.10810203 -0.010463453 -0.006394122 -0.10014792 0.09767589 -0.17332272 -0.077640496 -0.06193819 0.11543631 -0.09518493 0.011257795 -0.05833196 0.018159239 -0.11383104 0.023750136 -0.04874514 -0.16791937 -0.021782167 0.10395657 0.04196076 0.02424175 0.015773995 0.08792664 0.06993335 0.023936534 -0.064947836 0.12337285 -0.105440624 -0.17679505 -0.109229706 0.13405326 -0.027838688 0.13234706 0.049326167 -0.127966 -0.03346521 0.16552612 -0.019074664 0.016162312 0.15557928 -0.09477725 0.009873464 -0.0033862223 -0.12696522 0.018510288 -0.24401751 -0.048106007 0.25921836 -0.08500194 0.09829463 -0.13882789
32 -0.11547554 0.033610594 -0.1801355 -0.11730768 0.16108553 -0.10469365 0.1872894 -0.12532061 0.033778936 0.06596942 0.09185622 0.020083014 -0.13416702 0.05866387 -0.008494375 0.11417886 0.013914633 -0.02174058 0.048507564 0.08864106 0.10934742 0.03213989 -0.062793694 -0.07338066 0.096685 -0.13985881 -0.04435976 -0.06463598 -0.06580292 -0.030848633 -0.11672463 0.12049107 -0.12210922 0.17942798 -0.27173966 -0.08810309 0.17797908 0.07915247 -0.12882756 0.013771902 0.1264672 0.028115978 -0.056497395 -0.046881657 -0.07751267 -0.07579324 0.08658074 -0.057586916 -0.031170681 0.14299983 0.059591305 -0.18927065 0.04949739 0.016192643 -0.14258005 0.054463055 -0.10700578 -0.01109061 -0.06337102 -0.12531565 -0.1529784 -0.026158374 0.037801296 0.09124596 -0.010612332 0.097029425 -0.060397044 -0.1307217 -0.047250655 0.14896221 0.030771084 -0.0144075565 0.11645491 -0.09814491 -0.086635396 -0.11857478 -0.17610322 0.0773597 0.022518652 0.017277433 -0.10579548 0.13104585 -0.10325597 -0.084381364 -0.07828179 0.088232934 -0.11252007 0.023800807 -0.12206686 0.05655544 -0.12150744 0.008607116 -0.008188461 -0.08859646 -0.045300115 0.10517436 0.08099086 0.037347693 0.045108147 0.09386462 0.032729756 0.010765086 -0.09189517 0.09764455 -0.07185801 -0.16568603 -0.13510247 0.13088766 -0.094209746 0.106972314 0.048053093 -0.13604435 0.0047761 0.2000871 0.036825225 0.013820937 0.13292727 -0.05619153 0.025799753 0.015673613 -0.13638346 0.0380983 -0.21294934 -0.07347407 0.22683638 -0.032841817 0.10816842 -0.14981042
4 -0.13958628 0.036211606 -0.17813788 -0.13148047 0.20336609 -0.11859497 0.18468809 -0.10813968 0.059420493 0.07829857 0.094994135 0.028248858 -0.15363638 0.05308321 -0.007033373 0.14638087 0.024485787 -0.029147843 0.06920334 0.105041966 0.09333736 0.0017944011 -0.051906947 -0.09631522 0.11737569 -0.12244654 -0.070074394 -0.059064686 -0.082844585 -0.025125546 -0.10497851 0.13213445 -0.09388906 0.20275061 -0.28733155 -0.09062137 0.16786122 0.088714816 -0.14437017 0.02932975 0.12201288 -0.010882212 -0.06254141 -0.065282375 -0.055195313 -0.060296096 0.09482532 -0.06527312 -0.043082796 0.11837677 0.059293225 -0.20892529 0.04064453 -0.010792933 -0.15338312 0.06324664 -0.12229731 -0.017548531 -0.08131793 -0.13884252 -0.18683244 -0.037672166 0.03808111 0.0777495 -0.023394348 0.0871552 -0.059533585 -0.1393286 -0.044440787 0.1430779 0.005372333 -0.01603076 0.101029634 -0.07645347 -0.057770655 -0.1178861 -0.19140835 0.098582536 0.0045692245 -0.00022294016 -0.11211037 0.11036006 -0.14553413 -0.07375898 -0.07274366 0.10451269 -0.10389506 0.011685015 -0.093351156 0.04129845 -0.11372205 0.016027816 -0.02435807 -0.1383932 -0.037779115 0.102720894 0.063789256 0.028847639 0.0352004 0.09423744 0.049529422 0.014570541 -0.08018358 0.1123822 -0.092234865 -0.17326367 -0.12460222 0.14089409 -0.061941236 0.11978665 0.052294515 -0.13993648 -0.011859959 0.19021446 0.010685325 0.011914702 0.14799847 -0.08277487 0.022145104 0.0046935626 -0.12756754 0.026935643 -0.2394938 -0.057788294 0.25117707 -0.057951532 0.10124771 -0.14352705
24 -0.077136345 0.031264257 -0.18633242 -0.11786616 0.12338532 -0.08494878 0.18420972 -0.14824304 0.0047543356 0.045956217 0.076667294 -0.0002635463 -0.11073983 0.061844647 0.0030935197 0.085677445 -0.005777098 -0.020364609 0.03021053 0.07768514 0.12900184 0.0663321 -0.0762827 -0.046604365 0.09089826 -0.15664025 -0.015578655 -0.07219532 -0.05892834 -0.04267854 -0.12152456 0.10507494 -0.17137858 0.15750624 -0.25373867 -0.08735201 0.2016755 0.06609293 -0.11700757 -0.0022073514 0.13965377 0.07908505 -0.06586013 -0.017558683 -0.11981964 -0.09838122 0.078891955 -0.059400205 -0.015854586 0.17726168 0.07103812 -0.19344959 0.07052101 0.0377382 -0.13051416 0.040320143 -0.10977011 0.0006337603 -0.049897216 -0.12611133 -0.13195792 -0.018852228 0.033668164 0.11270132 -0.0024669466 0.101307645 -0.056709398 -0.11546078 -0.050116107 0.15931271 0.05110464 -0.016999412 0.1414897 -0.12159008 -0.12979673 -0.13143419 -0.16792452 0.05887669 0.042409934 0.033844348 -0.11453059 0.14862424 -0.050898593 -0.08374448 -0.09562998 0.062247895 -0.12244292 0.02315856 -0.16394232 0.08129935 -0.122441076 0.006434185 0.02414011 -0.049277093 -0.062137324 0.09886752 0.098172076 0.045695283 0.061672464 0.10278929 0.0026470127 0.008559101 -0.098880135 0.079624586 -0.05764834 -0.16010053 -0.14868581 0.12940969 -0.13545203 0.08760949 0.03679985 -0.15228046 0.02567476 0.23030381 0.0668121 0.018755246 0.13230048 -0.04108421 0.040858045 0.026466336 -0.14583433 0.057332654 -0.20981058 -0.103886224 0.21432154 -0.0023259786 0.1109998 -0.15470934
14 -0.10928704 0.033028927 -0.1723626 -0.11639119 0.16771819 -0.09869507 0.16720317 -0.10945168 0.04118714 0.07122647 0.08925122 0.01603198 -0.13777183 0.056922317 -0.0055702543 0.12287432 0.015984513 -0.02354967 0.05477405 0.08753464 0.09290199 0.013957552 -0.047711533 -0.07770633 0.097507045 -0.12451281 -0.051653545 -0.054488953 -0.072774224 -0.024124036 -0.10804157 0.11327574 -0.10715534 0.18310393 -0.27094653 -0.090523034 0.17104146 0.08123564 -0.12285304 0.018709391 0.11160712 0.009094 -0.056759704 -0.055752434 -0.060911488 -0.07231266 0.08856783 -0.05350632 -0.038032163 0.124147505 0.05065702 -0.18868913 0.03530603 7.385267e-05 -0.14070377 0.056746412 -0.11297167 -0.013921563 -0.06722753 -0.123727985 -0.1565048 -0.034902897 0.028723268 0.083679244 -0.01235792 0.08080636 -0.05227681 -0.123199426 -0.042832725 0.13798958 0.013543579 -0.019235361 0.10085858 -0.08238504 -0.07445188 -0.11277738 -0.17240465 0.085613 0.011343974 0.013993713 -0.101865314 0.11450259 -0.11448927 -0.06796465 -0.0662735 0.08382353 -0.1066293 0.018333696 -0.09978086 0.04199555 -0.110356115 0.021528954 -0.010736821 -0.111903094 -0.043111984 0.09307618 0.06344783 0.033469778 0.042069897 0.08592681 0.041144658 0.016579084 -0.07342528 0.09302204 -0.070570245 -0.16246343 -0.1278587 0.12634559 -0.06951819 0.10370861 0.040024087 -0.1304788 -0.0006101765 0.18206838 0.020600038 0.014134194 0.13696769 -0.061403207 0.019408774 0.009618032 -0.12095797 0.03617135 -0.21584325 -0.06459384 0.22846071 -0.049849816 0.09748571 -0.1422605
28 -0.07022917 0.029600315 -0.20093155 -0.12037838 0.11582505 -0.09027937 0.1943784 -0.15600538 0.0024793593 0.047480877 0.08159222 -0.009682145 -0.1105616 0.06697118 0.002033807 0.084439434 -0.0040175677 -0.014465644 0.030899957 0.07408817 0.14396037 0.0727648 -0.07628552 -0.034185447 0.08557818 -0.17275701 -0.01814783 -0.076703206 -0.06265354 -0.048126288 -0.13611439 0.106405474 -0.19151081 0.16488402 -0.27482817 -0.09331367 0.2213294 0.07119101 -0.12061615 0.0006577481 0.14775443 0.08470406 -0.06754176 -0.017328283 -0.13605554 -0.1090119 0.08227038 -0.0631048 -0.018344395 0.1954732 0.07155828 -0.20742376 0.07618097 0.047292266 -0.14473756 0.03811368 -0.113704816 -0.0013188261 -0.050477266 -0.13671803 -0.123933576 -0.013320013 0.041394778 0.12649387 -0.0030839809 0.096615314 -0.055720605 -0.11828121 -0.04669388 0.16850805 0.062383074 -0.020054583 0.15254484 -0.12947765 -0.15261461 -0.13818261 -0.17437607 0.05948218 0.043216433 0.039643858 -0.12070632 0.16121387 -0.04288337 -0.08013719 -0.10821866 0.069627084 -0.13492693 0.02960698 -0.17942946 0.091281936 -0.12880419 0.007704553 0.034465387 -0.044627123 -0.07523171 0.1008203 0.10592776 0.046699136 0.07685217 0.10526782 -0.00057905354 0.010906763 -0.107768185 0.07304025 -0.047515575 -0.16138323 -0.16321915 0.13404012 -0.14912452 0.08634244 0.041512568 -0.15495177 0.03297703 0.2486182 0.07141025 0.0172761 0.13520558 -0.035785317 0.043782182 0.03083977 -0.15213256 0.057422634 -0.21027847 -0.107754655 0.22610737 -0.0016349303 0.1213878 -0.16005927
30 -0.04983593 0.028636228 -0.20349844 -0.116568066 0.08516018 -0.07051757 0.19444068 -0.18055168 -0.02620494 0.028765714 0.069301866 -0.027277047 -0.09026231 0.081489146 0.009668396 0.055341993 -0.025254857 -0.013324091 -0.00058514683 0.06783154 0.16216522 0.10886449 -0.09546699 -0.01584264 0.07666676 -0.18763694 0.017195834 -0.08144103 -0.04343368 -0.060722798 -0.12962176 0.0890239 -0.23074427 0.1400978 -0.25004834 -0.07684053 0.2321438 0.054972857 -0.09928651 -0.022020202 0.15712686 0.13653177 -0.05992153 0.01524737 -0.16246676 -0.12980069 0.06715786 -0.0698933 -0.0044131284 0.22278404 0.08083354 -0.18145989 0.08749155 0.0647584 -0.12793894 0.016733905 -0.09926224 0.01342269 -0.028016634 -0.12930526 -0.099177614 -0.00480992 0.040779755 0.14114341 0.007419806 0.1096319 -0.05209801 -0.1049625 -0.059473984 0.17699504 0.084241465 -0.018360524 0.17534338 -0.151091 -0.18118337 -0.14705044 -0.17062493 0.0381145 0.062213838 0.05033246 -0.11348619 0.17113402 0.008154396 -0.09640698 -0.1205591 0.044995654 -0.13537383 0.032325167 -0.21798639 0.1133934 -0.13556673 -0.0059169815 0.050077394 0.0014618261 -0.089537725 0.10404244 0.11604636 0.045641024 0.08369451 0.1032996 -0.034285955 0.0121711185 -0.11427384 0.062650226 -0.030723654 -0.1446297 -0.16783413 0.122947864 -0.18529634 0.071955405 0.024999656 -0.1651814 0.0511941 0.26361278 0.11598798 0.020456243 0.117159605 -0.0077762697 0.046579517 0.032856025 -0.16571364 0.069094695 -0.20085353 -0.13016307 0.19574 0.03296443 0.11305902 -0.15925412
7 -0.2756169 0.04624891 -0.119806334 -0.15212503 0.33210567 -0.17203023 0.17470787 -0.034046866 0.1592051 0.13863069 0.12793596 0.123315535 -0.24733326 0.034351476 -0.043380626 0.24928229 0.089361124 -0.042812906 0.10164499 0.15158027 0.0144483745 -0.09879397 -0.0047313683 -0.23273198 0.16587281 -0.056848057 -0.16935691 -0.0067886356 -0.08373057 0.032845248 -0.054494657 0.155872 0.0826094 0.28576165 -0.34041116 -0.08990423 0.07326741 0.13393846 -0.1902719 0.097431846 0.07229448 -0.17327966 -0.031956386 -0.16729859 0.08385077 0.029940259 0.124183215 -0.058977958 -0.06020003 -0.029731547 0.02150338 -0.18830155 -0.010638452 -0.08813421 -0.16391295 0.121626385 -0.106143795 -0.057655897 -0.1435539 -0.123134874 -0.26668528 -0.0795006 0.039523847 -0.023217836 -0.06810653 0.08109384 -0.08699737 -0.18880524 -0.032840315 0.12552948 -0.079889536 -0.008710247 0.0113673415 0.00875571 0.13031203 -0.08952345 -0.21207564 0.13952492 -0.07054174 -0.054940503 -0.08957799 0.027867725 -0.30187896 -0.08459764 -0.0080183465 0.16319215 -0.055441443 0.006192507 0.0642615 -0.07752761 -0.119454384 0.026859455 -0.14102061 -0.28492433 0.040336892 0.10471151 -0.022388048 -0.0057778703 -0.060222205 0.072988555 0.15324885 0.022431867 -0.043601792 0.19253151 -0.1627725 -0.1790721 -0.040086426 0.13252944 0.090891555 0.18373345 0.07225953 -0.076345585 -0.11997246 0.08350851 -0.101911545 0.009586777 0.17057139 -0.14632048 -0.015855232 -0.0383031 -0.11597215 -0.048569772 -0.28604957 0.012707416 0.27943525 -0.15939713 0.05710971 -0.10793299
9 -0.08743841 0.033657067 -0.18482152 -0.1176153 0.13203135 -0.09163454 0.17805333 -0.13712499 0.021018688 0.05593875 0.077853136 0.0022434494 -0.11204373 0.062801406 0.0010653306 0.091776215 0.0044630365 -0.023222368 0.037276704 0.076341555 0.12039207 0.04926087 -0.06825177 -0.056874797 0.09258052 -0.14796497 -0.024758104 -0.063689604 -0.06625025 -0.037935697 -0.117559224 0.104533434 -0.15492503 0.16169643 -0.26124358 -0.08277239 0.19197388 0.07523093 -0.11612922 0.0068922974 0.12823434 0.0610175 -0.065056235 -0.02947371 -0.10608372 -0.093671165 0.0755661 -0.06272628 -0.022543263 0.1648924 0.065678224 -0.19142963 0.06270527 0.025605837 -0.13883789 0.043206047 -0.10606885 -0.003934488 -0.057689693 -0.12976894 -0.13509607 -0.0233431 0.03125859 0.10571213 -0.008155803 0.090284504 -0.054980334 -0.11601987 -0.04770118 0.15326709 0.044389777 -0.020994445 0.12942487 -0.110450484 -0.118404776 -0.12234196 -0.17208812 0.06452264 0.03400695 0.02895115 -0.10436225 0.13816871 -0.07177833 -0.08260557 -0.09176798 0.06854252 -0.11956237 0.023840524 -0.14320579 0.073103815 -0.11521251 0.01206793 0.016082013 -0.06714227 -0.05806812 0.10074965 0.08586881 0.042822238 0.057097405 0.09267185 0.009313506 0.012551206 -0.09135334 0.082149886 -0.057082277 -0.1584255 -0.14652789 0.129579 -0.11901599 0.09102571 0.035703756 -0.14742547 0.022226926 0.21864094 0.058627553 0.019882182 0.13233362 -0.0431309 0.0369737 0.021203278 -0.1439819 0.049171895 -0.21120158 -0.093996294 0.22148935 -0.012065774 0.11067928 -0.15165061
6 -0.25144038 0.04349224 -0.1364927 -0.15174392 0.30750114 -0.16926369 0.18498565 -0.051736996 0.13278884 0.13316622 0.12407269 0.106277324 -0.22781043 0.04448575 -0.037406925 0.2280943 0.077774905 -0.043005586 0.10083105 0.14276981 0.038839575 -0.076550074 -0.018741902 -0.20590566 0.15439366 -0.074013725 -0.15326615 -0.0195377 -0.08139101 0.02500749 -0.0693408 0.1520267 0.04631967 0.26820323 -0.33112198 -0.085705884 0.08792564 0.12733667 -0.1832688 0.08237228 0.07821628 -0.13724703 -0.036188416 -0.14475495 0.054922357 0.011161409 0.11812779 -0.05911983 -0.056695815 0.0016922489 0.03313385 -0.18724555 -0.002982187 -0.07325 -0.1597895 0.11144558 -0.10774159 -0.05422096 -0.13326417 -0.12013907 -0.25158408 -0.07572387 0.033150777 -0.002891937 -0.056451626 0.08214453 -0.08666821 -0.1821925 -0.03475333 0.13356335 -0.0608635 -0.008384308 0.030899808 -0.0077351867 0.09046587 -0.093982756 -0.21255328 0.13098636 -0.054305084 -0.04258482 -0.09110287 0.04781552 -0.26892343 -0.08609861 -0.021762574 0.15147878 -0.066794895 0.008468515 0.03185753 -0.051473178 -0.124896586 0.026130022 -0.11620701 -0.25065315 0.02714484 0.102052 -0.001197079 0.0022656317 -0.041005895 0.08416548 0.12807639 0.02043221 -0.054961454 0.17986783 -0.15002903 -0.17794196 -0.059193365 0.14198199 0.05382146 0.17329961 0.071239606 -0.089163475 -0.10007321 0.11237787 -0.0764795 0.008060672 0.16633855 -0.13794355 -0.011669121 -0.02418706 -0.12235006 -0.03327316 -0.2763657 -0.002321745 0.27388906 -0.14032352 0.06454591 -0.1184528
8 -0.13283242 0.03323052 -0.17762053 -0.1246662 0.19865517 -0.11323589 0.1865448 -0.10593263 0.059962276 0.08055793 0.09374578 0.032052018 -0.15248093 0.050363764 -0.011083097 0.1423221 0.024406997 -0.030350158 0.07065208 0.09840062 0.087576054 -0.000965836 -0.04855076 -0.09616883 0.11352444 -0.12373793 -0.06827744 -0.053028263 -0.08480276 -0.020729113 -0.11124693 0.12944765 -0.093660586 0.19886386 -0.2840319 -0.09354923 0.16717163 0.08593958 -0.13530749 0.025907254 0.116153285 -0.012057704 -0.058353875 -0.067825265 -0.049476117 -0.058703505 0.09095958 -0.05939119 -0.041610856 0.1133896 0.05355555 -0.20604728 0.035360742 -0.008182021 -0.15244839 0.066257805 -0.11811255 -0.02038349 -0.08070743 -0.1324801 -0.18001011 -0.040290218 0.03212112 0.07753738 -0.024190318 0.08690235 -0.057909574 -0.12847851 -0.03782916 0.13819452 0.0035522266 -0.014045421 0.09543316 -0.07371686 -0.05877066 -0.11385012 -0.18454237 0.09609135 0.00028486853 0.0030810372 -0.108119324 0.11076801 -0.14318013 -0.0659954 -0.06294545 0.10181736 -0.10563526 0.010005856 -0.08761576 0.035831723 -0.11303173 0.025388118 -0.022109859 -0.13396001 -0.03593579 0.10135658 0.058027152 0.028158572 0.035179086 0.084002964 0.04860472 0.020171711 -0.072289504 0.10794644 -0.09082265 -0.17082596 -0.122661315 0.13513228 -0.058664333 0.1207756 0.049444403 -0.13305143 -0.013916751 0.18066931 0.0014994167 0.013367704 0.14556228 -0.081908695 0.01886404 0.0029102217 -0.12769279 0.030531876 -0.22785856 -0.062383443 0.23883493 -0.060686547 0.10465482 -0.13802563
25 -0.07093547 0.034955442 -0.19617262 -0.11624529 0.1188362 -0.08424621 0.19403009 -0.1609671 -0.0033284111 0.05044112 0.08105154 -0.008564803 -0.11505541 0.06481245 0.0024788328 0.08161358 -0.011899614 -0.01208612 0.025023505 0.07665337 0.14393495 0.07830573 -0.07373197 -0.03735542 0.08729164 -0.1684889 -0.020272193 -0.079565644 -0.05566961 -0.050738603 -0.13382179 0.1089992 -0.18373974 0.15907772 -0.26424935 -0.096680745 0.21478589 0.06831972 -0.12210209 0.0013478094 0.14416814 0.090110034 -0.06049319 -0.007933863 -0.13471772 -0.10530753 0.084147476 -0.0649917 -0.017743941 0.19067822 0.07423684 -0.20090699 0.07873233 0.051657893 -0.13955475 0.03468678 -0.11151997 -0.0027786535 -0.047701105 -0.13842362 -0.1280282 -0.017003946 0.046123274 0.11781455 0.0027183804 0.09926279 -0.05413853 -0.1149353 -0.04978035 0.16411167 0.061910894 -0.017435484 0.14850526 -0.12601054 -0.14271404 -0.13540494 -0.16780366 0.053405475 0.04796859 0.03187417 -0.11784191 0.15963107 -0.04222715 -0.08296926 -0.10194255 0.069118164 -0.12763649 0.025089031 -0.17839532 0.093198165 -0.120343 0.0035071715 0.02928314 -0.04473575 -0.073267214 0.10275167 0.100604 0.040072754 0.071505785 0.09814736 -0.0015434937 0.0069282493 -0.10564741 0.07390115 -0.05215222 -0.15946455 -0.15676506 0.12874275 -0.14202985 0.090865776 0.036302894 -0.14677216 0.031079557 0.24304739 0.07523522 0.01594931 0.12690431 -0.032115728 0.038673174 0.021784024 -0.1447478 0.052291133 -0.20722233 -0.11089175 0.2101705 0.008134541 0.11771499 -0.15912041
26 -0.0975788 0.033821743 -0.18337041 -0.11551638 0.14332625 -0.09734701 0.1872071 -0.1378074 0.015440219 0.059995133 0.08440357 0.012261083 -0.12427286 0.05699376 -0.0054404624 0.09838577 0.002330606 -0.016483605 0.03256493 0.08027443 0.12336993 0.051154085 -0.066877194 -0.06317736 0.087291546 -0.14995062 -0.041772105 -0.07059144 -0.05814085 -0.04094781 -0.11448188 0.10643632 -0.14010139 0.17309912 -0.26737556 -0.092985585 0.18888089 0.07768881 -0.12546842 0.01248088 0.13528377 0.055932876 -0.057314184 -0.027560238 -0.100281976 -0.08935694 0.08366968 -0.06425538 -0.018531768 0.15509436 0.068984404 -0.1937961 0.06311381 0.026203355 -0.13601534 0.046032753 -0.103011504 -0.011418855 -0.060717635 -0.1310206 -0.13730128 -0.022072854 0.04383039 0.1002649 -0.0034930333 0.098804384 -0.057483885 -0.12352067 -0.0440364 0.15490241 0.040562537 -0.017889189 0.12926398 -0.10255726 -0.1050348 -0.1272957 -0.168301 0.0607032 0.026615866 0.017807746 -0.114319414 0.13673355 -0.07314848 -0.08514615 -0.089536205 0.07948281 -0.11672182 0.023856832 -0.13740364 0.06728201 -0.12156718 0.00069303863 0.0086357705 -0.06974916 -0.056237955 0.098708555 0.08732855 0.037872165 0.046821907 0.09897103 0.018867942 0.0119101815 -0.09205344 0.08658951 -0.06609453 -0.15709694 -0.13209091 0.12275546 -0.10343246 0.09489352 0.04288697 -0.12987335 0.011010484 0.21703872 0.047199704 0.017119119 0.13047889 -0.04581132 0.03290012 0.019481143 -0.13699344 0.03716725 -0.20936564 -0.09199668 0.2174746 -0.013531787 0.108159095 -0.15019898
5 -0.28091922 0.048381906 -0.14488581 -0.15686502 0.3405046 -0.18305768 0.18847093 -0.04880935 0.15290245 0.14168562 0.13803507 0.12171552 -0.25637892 0.03936253 -0.03994934 0.24816291 0.089406565 -0.048068278 0.10670684 0.15468954 0.030626738 -0.08581079 -0.016736148 -0.23166277 0.16876104 -0.07425185 -0.17053552 -0.017184613 -0.08414544 0.029911283 -0.06712808 0.17093773 0.06851084 0.29347485 -0.35849503 -0.09752996 0.08645039 0.13910408 -0.19440448 0.0905339 0.080835655 -0.16438122 -0.03564256 -0.16069227 0.0703865 0.018350204 0.13198788 -0.061934568 -0.06385298 -0.006544289 0.027927319 -0.20157854 -0.0060359784 -0.089337535 -0.17398915 0.12794253 -0.119593486 -0.05919367 -0.14921921 -0.12691152 -0.26993692 -0.0837529 0.03773053 -0.009335295 -0.06605333 0.089897856 -0.09534667 -0.19642426 -0.03412327 0.13934675 -0.07771551 -0.011554188 0.028069774 -0.0010456754 0.11664432 -0.09309824 -0.22494186 0.14949656 -0.06145294 -0.0494245 -0.095263645 0.043595422 -0.2965066 -0.08704881 -0.015584767 0.1669217 -0.067353696 0.0102379415 0.051314887 -0.06922677 -0.12503535 0.031319126 -0.13572389 -0.28116122 0.03659294 0.10740128 -0.008682514 0.0040738075 -0.05197236 0.087260805 0.1505841 0.027042123 -0.050419435 0.19908908 -0.1682018 -0.1918562 -0.05896326 0.15063459 0.075580604 0.18707901 0.07256055 -0.08530581 -0.115144044 0.101487726 -0.093081966 0.009932848 0.17349356 -0.15279163 -0.0109601505 -0.026476834 -0.120062254 -0.035543308 -0.296018 -0.00040506065 0.29110864 -0.15356721 0.06393387 -0.12369109
11 -0.22910137 0.03760205 -0.14167075 -0.13918296 0.28538865 -0.1570379 0.1759356 -0.058455475 0.12638715 0.12217483 0.118222356 0.09328922 -0.21603908 0.045831162 -0.029199908 0.21163997 0.07035404 -0.03965842 0.08709863 0.13344464 0.0433879 -0.0617645 -0.022537509 -0.19006565 0.14767696 -0.07865318 -0.13752884 -0.02412185 -0.07834717 0.012946126 -0.073016904 0.1449221 0.027791139 0.25573736 -0.32046115 -0.08403073 0.1013623 0.12296006 -0.17357177 0.075558804 0.08317925 -0.11831764 -0.04000475 -0.13438095 0.041408975 0.00049354456 0.113860294 -0.05494956 -0.050249416 0.01790471 0.030653827 -0.19140945 0.0054985313 -0.06653033 -0.15436904 0.10141081 -0.11025422 -0.0443968 -0.1219138 -0.12521309 -0.23706 -0.068295926 0.03533852 0.012605072 -0.05717718 0.08085123 -0.08141276 -0.17135818 -0.03887648 0.1313557 -0.050312985 -0.008735715 0.037141986 -0.020204993 0.0704861 -0.09776061 -0.20678662 0.12872861 -0.046950318 -0.036807258 -0.095775686 0.05439658 -0.24567562 -0.080063544 -0.031632602 0.13654377 -0.06925457 0.008727375 0.016335439 -0.041978195 -0.11892342 0.027298989 -0.10117937 -0.22905712 0.013094863 0.10544766 0.009643155 0.0062712505 -0.03241858 0.07828863 0.11772323 0.023929741 -0.058073904 0.16551636 -0.13967322 -0.17628092 -0.07035868 0.13427268 0.039708994 0.15801713 0.060813885 -0.099469714 -0.08546914 0.12117822 -0.058607843 0.01313731 0.16044532 -0.12442166 -0.008397441 -0.020800838 -0.121979065 -0.02251158 -0.26653254 -0.016316406 0.26796108 -0.12431072 0.06699535 -0.1229357
29 -0.07739817 0.029119214 -0.19362427 -0.11843257 0.11973085 -0.08777064 0.18803546 -0.14985569 0.009734308 0.047711875 0.07914162 -0.0022847585 -0.10591014 0.06348299 0.0007571713 0.084607564 -0.0015876251 -0.01863251 0.024755027 0.07705309 0.1343116 0.06406513 -0.07618675 -0.044111047 0.084319875 -0.167501 -0.018721456 -0.07427585 -0.06518924 -0.04443584 -0.1279677 0.10246084 -0.18298942 0.15618765 -0.26629493 -0.08336423 0.2060604 0.068514414 -0.1112137 0.0012900733 0.14532462 0.087096386 -0.061566666 -0.020220928 -0.12728314 -0.109246396 0.08188266 -0.06645327 -0.017280541 0.18326318 0.069994316 -0.19284758 0.07219324 0.044656515 -0.1426277 0.03407719 -0.11469677 -0.0025551561 -0.05377391 -0.1378274 -0.13143077 -0.02360698 0.034365844 0.1178102 -0.0046154126 0.09750347 -0.053212773 -0.12015959 -0.051028028 0.16652443 0.05561711 -0.017112058 0.14460681 -0.12934025 -0.14398944 -0.13552667 -0.17428401 0.061250232 0.043426707 0.038480416 -0.1155058 0.15623614 -0.046453256 -0.09052161 -0.101499066 0.06698788 -0.13034357 0.020773286 -0.17255355 0.08350338 -0.121464714 0.0006050568 0.024770135 -0.048016615 -0.07347303 0.10815988 0.09759234 0.040309537 0.06943506 0.10402534 -0.0056157103 0.015659561 -0.099217296 0.07568879 -0.047991272 -0.15474634 -0.153842 0.12730996 -0.13906337 0.08370798 0.03437795 -0.15933064 0.02716049 0.2423857 0.078907765 0.023069587 0.12931006 -0.03735351 0.043513596 0.021943739 -0.15333575 0.055262804 -0.2097347 -0.103557535 0.21412073 0.0025067662 0.10994177 -0.15813093
31 -0.110136256 0.03271982 -0.19440445 -0.13070759 0.15653716 -0.106355354 0.1962275 -0.13756959 0.0335596 0.060764913 0.09485702 0.013224841 -0.13648926 0.07039482 -0.004210399 0.11259888 0.0111802565 -0.028782692 0.04369458 0.09035111 0.12444369 0.043693602 -0.07137537 -0.071862265 0.1004196 -0.16097751 -0.039683294 -0.06756294 -0.06490206 -0.035852015 -0.117009275 0.116307534 -0.14759658 0.18167044 -0.2816559 -0.0843374 0.19638924 0.08453428 -0.1277459 0.013556591 0.13635287 0.0451108 -0.057658017 -0.040048387 -0.098478675 -0.0936658 0.084504485 -0.061465327 -0.029408993 0.16125745 0.06411911 -0.19460408 0.058468275 0.025469048 -0.14637925 0.047395196 -0.11541744 -0.010757015 -0.06511274 -0.13649616 -0.15212443 -0.03002386 0.032572407 0.09961508 -0.01621967 0.10154742 -0.061044883 -0.13266619 -0.048752435 0.16215266 0.034771144 -0.015321393 0.13000013 -0.11422584 -0.108292036 -0.13154893 -0.18775089 0.07771111 0.02846585 0.023460243 -0.10967069 0.13612467 -0.0857495 -0.09125215 -0.08727202 0.08101758 -0.12422113 0.026717039 -0.14415795 0.06433408 -0.1311602 0.007685816 0.0034972536 -0.08072756 -0.05428512 0.11173696 0.08441254 0.036742352 0.054674912 0.100016676 0.020268885 0.013441985 -0.0974977 0.09557453 -0.06966182 -0.16356584 -0.14618008 0.1352499 -0.11022205 0.10019889 0.03954421 -0.15077437 0.0064541986 0.22398227 0.055001456 0.019920796 0.14305018 -0.05121349 0.029187428 0.016816702 -0.14860077 0.045669146 -0.2248911 -0.08921933 0.23234004 -0.024242546 0.104641415 -0.1523346
20 -0.1511023 0.03758661 -0.16345453 -0.12767677 0.21725786 -0.11879029 0.17451586 -0.08852328 0.075767934 0.08695099 0.099994324 0.045183733 -0.16657336 0.0498049 -0.017608462 0.16109332 0.03929435 -0.032192893 0.08122913 0.10406579 0.06697655 -0.021648647 -0.042028844 -0.12241433 0.11785242 -0.11036602 -0.08431773 -0.048524506 -0.081821814 -0.017974745 -0.100642756 0.13041805 -0.061557587 0.21927427 -0.29713732 -0.09465698 0.15152752 0.101542674 -0.14891425 0.039950144 0.105534784 -0.038063 -0.056301072 -0.081359774 -0.021307634 -0.04889356 0.1006751 -0.059163723 -0.050521012 0.08381767 0.04322948 -0.2069384 0.021049978 -0.029106604 -0.15076748 0.074106045 -0.11587276 -0.032700226 -0.09005847 -0.13194053 -0.19339037 -0.047831524 0.03469244 0.059989184 -0.02720609 0.08522577 -0.0639088 -0.14436781 -0.037425872 0.1352668 -0.012604724 -0.020312259 0.08413593 -0.0648444 -0.022801708 -0.10196741 -0.19054642 0.1074626 -0.013739642 -0.009524454 -0.105108865 0.09637745 -0.17103742 -0.073631406 -0.058764964 0.114487424 -0.10019738 0.01660744 -0.056115802 0.01842636 -0.1119914 0.0260647 -0.03963522 -0.16060099 -0.02186674 0.10239995 0.048475325 0.024469212 0.019743824 0.08380653 0.0690076 0.017989963 -0.0662191 0.1165842 -0.10376417 -0.17611519 -0.112359464 0.13148418 -0.029369798 0.12391531 0.052057084 -0.124168925 -0.034206897 0.16299354 -0.01685566 0.010648559 0.1506126 -0.09457547 0.013011602 0.00040389388 -0.123971514 0.017528757 -0.236589 -0.041037265 0.25938547 -0.08192941 0.10006639 -0.13457213
19 -0.06272537 0.030823426 -0.18087961 -0.10930929 0.10141987 -0.08014487 0.16754843 -0.14888 -0.005270838 0.0401815 0.071003966 -0.005938992 -0.09567765 0.06865796 9.1065885e-07 0.069211245 -0.010344566 -0.021865267 0.012150075 0.06667813 0.13710539 0.07648149 -0.07959169 -0.035969604 0.07696356 -0.15877537 -0.007636592 -0.06678487 -0.049349833 -0.046438504 -0.10907851 0.088540375 -0.18294738 0.15043165 -0.25067246 -0.07686868 0.20498054 0.06346958 -0.10424529 -0.0069526806 0.14073323 0.09179 -0.059058182 -0.010770042 -0.1321218 -0.10156021 0.06983439 -0.059119638 -0.012278984 0.17697088 0.070261374 -0.1806347 0.07446028 0.047689497 -0.12689047 0.02643227 -0.09732709 0.002695807 -0.04429516 -0.11984912 -0.11385551 -0.019190619 0.03533964 0.119284354 0.00069716835 0.09899389 -0.05231682 -0.11535541 -0.055992104 0.16626777 0.0547483 -0.014488806 0.14515622 -0.12823233 -0.14600995 -0.13381034 -0.16821916 0.05252163 0.046962284 0.04139432 -0.11062763 0.14948666 -0.031519096 -0.087088205 -0.10707014 0.05487491 -0.12522377 0.026517285 -0.17733987 0.087215096 -0.12879285 -0.0030923628 0.03384778 -0.029773962 -0.07010823 0.095117755 0.098179325 0.039975338 0.06775547 0.094180696 -0.007716886 0.009380526 -0.100718625 0.07571729 -0.043956 -0.14237721 -0.15386179 0.120015465 -0.14692935 0.07528213 0.031446148 -0.14990762 0.031158322 0.2326713 0.086263135 0.025820356 0.12807432 -0.027642947 0.043153554 0.026850043 -0.15115622 0.05366279 -0.19956875 -0.10681939 0.20896819 0.009404094 0.10254196 -0.14908798
17 -0.2368464 0.045303036 -0.14873835 -0.15473591 0.29030016 -0.16469987 0.18824758 -0.072186984 0.12365243 0.12530382 0.12361668 0.090717964 -0.22399999 0.05030727 -0.029879166 0.21388973 0.06695388 -0.043234374 0.08881446 0.13730721 0.055327103 -0.05171464 -0.031838007 -0.19111533 0.1551554 -0.09312704 -0.13397464 -0.028544273 -0.078255504 0.0091638565 -0.07946858 0.15326661 0.0147432275 0.2658431 -0.33826935 -0.09125296 0.11336693 0.120339066 -0.18058813 0.07231725 0.09857094 -0.11143292 -0.039769582 -0.1299418 0.02958261 -0.0069659334 0.11511724 -0.065219775 -0.052965485 0.03347903 0.040899023 -0.19785732 0.010028598 -0.05529158 -0.17006025 0.10088187 -0.11436836 -0.044603307 -0.128153 -0.13152786 -0.24023856 -0.07285853 0.037834752 0.014611008 -0.058329742 0.089244515 -0.086180784 -0.17246784 -0.0433243 0.14362015 -0.0470715 -0.008403761 0.05137636 -0.02578092 0.061071895 -0.10769986 -0.21714556 0.13052106 -0.041833855 -0.0341939 -0.1009638 0.06882716 -0.24539624 -0.090093434 -0.03905091 0.14743668 -0.07461451 0.0063693663 0.0043876404 -0.03453148 -0.12549926 0.026133059 -0.10282869 -0.2324448 0.014007994 0.11134157 0.011303206 0.009246545 -0.02888495 0.08983765 0.11131402 0.024760839 -0.058880046 0.17001802 -0.13908279 -0.17819493 -0.07296713 0.13822548 0.03046109 0.1641206 0.06891019 -0.10091092 -0.08018286 0.12738967 -0.054624766 0.010897223 0.16374485 -0.12095508 0.00089809747 -0.019604929 -0.12695093 -0.021763308 -0.27607435 -0.017583868 0.26904806 -0.123511754 0.07029975 -0.12288515
27 -0.06843168 0.0293731 -0.19016913 -0.118281186 0.10421165 -0.085230544 0.18643486 -0.15133697 -0.0015046587 0.043205123 0.07493775 -0.009246703 -0.09853616 0.070566736 0.0011480651 0.08075049 -0.009890539 -0.021827329 0.018533198 0.072226554 0.13434254 0.07493483 -0.08063862 -0.035285257 0.08527914 -0.16258788 -0.0052958294 -0.06894768 -0.05238159 -0.051189877 -0.117944434 0.09928346 -0.18993829 0.15726699 -0.2586168 -0.0853854 0.20728262 0.06466589 -0.11208151 -0.0006650395 0.13843814 0.093447976 -0.06354566 -0.010346065 -0.1263164 -0.10339232 0.0721451 -0.06671855 -0.013785718 0.18778034 0.06867974 -0.19315001 0.07412712 0.04177556 -0.13228758 0.031234981 -0.10811131 0.0042593125 -0.046617452 -0.12877169 -0.12658267 -0.023207124 0.03373161 0.12090295 0.002841471 0.104263835 -0.05673171 -0.11319592 -0.050984316 0.16773427 0.06083063 -0.019315336 0.1476348 -0.13184652 -0.14658843 -0.1311809 -0.17647475 0.054195005 0.04988552 0.041809548 -0.10987427 0.15612705 -0.04123391 -0.0847493 -0.10837787 0.057157915 -0.13024592 0.029228287 -0.17368488 0.08729839 -0.12596135 0.0024804487 0.0321879 -0.03910621 -0.075457744 0.09818779 0.10324066 0.048694327 0.07129729 0.10152203 -0.0023153955 0.014461424 -0.09977454 0.07778772 -0.045097396 -0.15573864 -0.15504922 0.12909265 -0.15115908 0.08701529 0.034453955 -0.15752976 0.033716097 0.2445028 0.08204112 0.023641452 0.12915517 -0.03614303 0.041514605 0.028933415 -0.1560043 0.057455204 -0.20740406 -0.11190311 0.21392864 0.009542246 0.114839286 -0.15319782
16 -0.082586624 0.026573924 -0.18024075 -0.11519437 0.12300618 -0.08697673 0.18005332 -0.13964099 0.013025037 0.046131525 0.07457635 -0.0034449927 -0.10822163 0.06383533 -0.0029802364 0.08563566 0.0015112186 -0.021121396 0.024309691 0.07643765 0.1258929 0.056307588 -0.0745461 -0.048245605 0.083648875 -0.15666604 -0.023863321 -0.06395218 -0.056472242 -0.044190772 -0.114581384 0.10441478 -0.16408062 0.15886594 -0.25201443 -0.07990561 0.19474259 0.07161251 -0.109394394 0.003738158 0.13220014 0.06962096 -0.059139013 -0.02161512 -0.112161346 -0.098660186 0.07601974 -0.057430405 -0.018992692 0.16717416 0.06659674 -0.1844701 0.06704147 0.035626628 -0.1268351 0.0385109 -0.1068728 -0.0015324414 -0.04767426 -0.12633342 -0.1273655 -0.02152969 0.035541687 0.10853267 -0.0068794535 0.092626244 -0.055482678 -0.11364866 -0.04448101 0.15593529 0.05005976 -0.015961496 0.12813102 -0.11764532 -0.1183061 -0.12670685 -0.16115211 0.057616252 0.035276994 0.029520363 -0.1026805 0.13592076 -0.052970268 -0.084082335 -0.0951859 0.06378444 -0.11442449 0.024940645 -0.15300214 0.078901306 -0.11764563 0.0029495794 0.019393567 -0.052797906 -0.062925644 0.10049745 0.08966049 0.040971305 0.062389113 0.095091574 0.0045840275 0.010069973 -0.09612325 0.07463352 -0.05108061 -0.1481316 -0.14136456 0.11681187 -0.1258096 0.082784764 0.03555706 -0.14260152 0.019043207 0.2189763 0.06236292 0.020573478 0.12572743 -0.039065734 0.037392035 0.022297364 -0.14168648 0.047924165 -0.20117664 -0.09838119 0.20688577 -0.007928015 0.103949055 -0.14374158
23 -0.10264942 0.030980317 -0.1815347 -0.12481502 0.15153731 -0.09923045 0.18358058 -0.1290684 0.027676238 0.0579063 0.08348427 0.0103205815 -0.13152586 0.06583374 -0.009285609 0.10870496 0.008452882 -0.021523077 0.042191572 0.088001385 0.112846985 0.04191526 -0.06681266 -0.07362734 0.098709695 -0.14748682 -0.03757203 -0.05829263 -0.06782373 -0.034195192 -0.111838326 0.11359299 -0.14073867 0.17573404 -0.26983702 -0.08214617 0.18717825 0.080492735 -0.119439036 0.012921169 0.12952921 0.04064678 -0.062617764 -0.037647374 -0.08840318 -0.08518657 0.08462071 -0.06101139 -0.029377148 0.14607054 0.06232185 -0.19023544 0.054774206 0.018789595 -0.13978338 0.046639446 -0.106361486 -0.007968953 -0.061533228 -0.12731898 -0.14463748 -0.02874203 0.034965653 0.09520413 -0.0124442205 0.0918678 -0.061010923 -0.12784697 -0.047344893 0.15145947 0.030040782 -0.019405695 0.12153618 -0.1034895 -0.09584512 -0.12307903 -0.17950714 0.07361518 0.022625633 0.021004422 -0.108457066 0.12977512 -0.087310806 -0.08577505 -0.08804283 0.08104489 -0.11539766 0.02429352 -0.13318875 0.06148761 -0.120554425 0.011890864 0.00044679194 -0.08072399 -0.053694736 0.105653934 0.081321366 0.036304597 0.0484724 0.09518506 0.020727588 0.015168368 -0.088405095 0.09329788 -0.063301206 -0.16020967 -0.13943817 0.13081373 -0.10790934 0.09748387 0.043733284 -0.14311087 0.005617652 0.21155727 0.04618108 0.020443209 0.13841873 -0.053266674 0.029057968 0.016755102 -0.14438903 0.044388063 -0.22040269 -0.08379833 0.22693805 -0.026405267 0.10735011 -0.1500359
21 -0.09226788 0.03401355 -0.1827992 -0.11784051 0.13802247 -0.08996015 0.178268 -0.1357051 0.021006942 0.053555556 0.077336825 0.0052536144 -0.117003486 0.06251847 -0.0010335563 0.09100112 0.0038094032 -0.027321491 0.030872257 0.07612577 0.12307776 0.053505145 -0.07115589 -0.060888276 0.088340856 -0.15161541 -0.029382354 -0.060955223 -0.05706809 -0.042500217 -0.112632126 0.1081322 -0.15376972 0.16719207 -0.2641558 -0.080163315 0.19304356 0.07623253 -0.11876823 0.012078673 0.13157716 0.056943037 -0.057071127 -0.028073018 -0.104425326 -0.094022214 0.07579503 -0.059308294 -0.022938658 0.15588398 0.065441325 -0.1835101 0.056594554 0.024494894 -0.13712317 0.044593275 -0.10405467 -0.0065217055 -0.059524745 -0.13068767 -0.13376078 -0.030024355 0.032663364 0.09843111 -0.011700971 0.09533147 -0.05795782 -0.11863074 -0.04922045 0.15906243 0.041357573 -0.02155244 0.1252684 -0.11227822 -0.10937794 -0.12578681 -0.17143373 0.066880114 0.032953322 0.028772287 -0.106705 0.13160521 -0.06929988 -0.08947586 -0.095162444 0.068849504 -0.11709791 0.025551815 -0.14745949 0.07105021 -0.12582926 0.0052837553 0.0056736106 -0.06446026 -0.059169035 0.10349085 0.08770203 0.03812722 0.053849556 0.089250565 0.008901491 0.010103811 -0.096022926 0.08652411 -0.057614025 -0.15332703 -0.14472412 0.12716906 -0.11854217 0.08873706 0.03877354 -0.144263 0.013786824 0.21684171 0.058109768 0.020150078 0.13478954 -0.043470815 0.02954023 0.022572652 -0.14655626 0.04662818 -0.21393956 -0.0886874 0.22368346 -0.016763967 0.102362245 -0.14327274
10 -0.106652595 0.03278203 -0.18066889 -0.12693773 0.15817803 -0.10361076 0.18578175 -0.1297627 0.03829809 0.066248834 0.08962938 0.020453395 -0.13455229 0.06297019 -0.008481449 0.11586345 0.014551164 -0.020990975 0.04626967 0.08692767 0.11299991 0.036510274 -0.06222338 -0.07217355 0.10135115 -0.14065474 -0.04757387 -0.063016355 -0.06594435 -0.030607544 -0.1156582 0.1185874 -0.13000835 0.182819 -0.27413642 -0.08408611 0.18263014 0.08441569 -0.121455945 0.01864127 0.122195974 0.037211724 -0.062248603 -0.041425843 -0.08657441 -0.076832056 0.08451576 -0.057668366 -0.024735421 0.14592549 0.058786675 -0.19008525 0.053220253 0.019409183 -0.14199176 0.055344474 -0.11410306 -0.008598501 -0.06731035 -0.12928629 -0.14793073 -0.030106591 0.0313079 0.093200944 -0.017851379 0.09295589 -0.056383148 -0.123148575 -0.04786549 0.15052792 0.028858023 -0.013349088 0.114685275 -0.10051988 -0.09321373 -0.120509684 -0.17837417 0.07835001 0.022533493 0.020025868 -0.10299501 0.13204312 -0.09479141 -0.07821415 -0.07949121 0.085498825 -0.11182274 0.017122611 -0.11887192 0.059377212 -0.11856743 0.01625169 -0.0066923494 -0.09122984 -0.04671502 0.10365208 0.078036234 0.03416847 0.044083852 0.09101838 0.023875559 0.013268069 -0.08726975 0.09417024 -0.06763465 -0.1591708 -0.1372395 0.12674019 -0.09906096 0.1061614 0.0415117 -0.14187951 0.0028753423 0.20336065 0.0383601 0.021614522 0.13643833 -0.05906038 0.030315397 0.014552289 -0.14134766 0.039945208 -0.21416606 -0.07947364 0.22612701 -0.030701254 0.102289066 -0.14710063
18 -0.15861186 0.03579436 -0.17176166 -0.1309998 0.22108293 -0.12675712 0.18531683 -0.09471555 0.07836247 0.09323057 0.10027671 0.041788317 -0.167004 0.052395597 -0.0152560575 0.16142093 0.03589814 -0.03630761 0.075183 0.107166134 0.07717236 -0.008694769 -0.0417296 -0.124594934 0.120530285 -0.119456924 -0.08726981 -0.044565905 -0.08545541 -0.020001827 -0.10350692 0.13502264 -0.068635345 0.21774188 -0.3102987 -0.09285098 0.15540043 0.10037162 -0.15391654 0.044732764 0.1113283 -0.036084417 -0.0602252 -0.08557997 -0.035053134 -0.047214404 0.1039368 -0.059571862 -0.040693883 0.09310276 0.0474438 -0.21071579 0.027685627 -0.0244665 -0.16239259 0.077125825 -0.12117887 -0.028477067 -0.09420184 -0.13982116 -0.20035644 -0.052066732 0.031516157 0.06784174 -0.030056858 0.08784321 -0.06784189 -0.14396317 -0.04496398 0.14462554 -0.00892164 -0.015778052 0.08501936 -0.07212352 -0.032271545 -0.11237931 -0.19421723 0.102996126 -0.003392196 -0.0016630443 -0.11141287 0.10128223 -0.17403445 -0.0772554 -0.059729587 0.110302545 -0.10392274 0.011399266 -0.06725018 0.022432126 -0.122801736 0.02185066 -0.043480344 -0.16345637 -0.025529727 0.107457615 0.054061826 0.02665354 0.021503158 0.08965654 0.06741444 0.018103784 -0.07478388 0.12908684 -0.102013275 -0.17873736 -0.11893595 0.13533428 -0.03708994 0.13237657 0.057059627 -0.13438733 -0.03337816 0.1791676 -0.005311316 0.017770084 0.15966551 -0.087496854 0.014582038 -0.003700271 -0.13305685 0.016291609 -0.24740565 -0.048832953 0.26110414 -0.07793864 0.095865615 -0.14439724
22 -0.13479002 0.029879978 -0.17119102 -0.12011315 0.20014125 -0.108777866 0.17520411 -0.099294744 0.06496669 0.08185356 0.09101457 0.028726583 -0.15526913 0.049517218 -0.01083922 0.14384542 0.028848467 -0.03275327 0.072272666 0.100505285 0.078434 -0.0030640317 -0.04920388 -0.10279976 0.11265405 -0.11731126 -0.07368491 -0.051136896 -0.07900394 -0.019652236 -0.10344057 0.12802456 -0.08218633 0.20437846 -0.28431645 -0.09095275 0.16238248 0.095880486 -0.13795957 0.03215259 0.114172235 -0.014288193 -0.0630036 -0.07032835 -0.041293547 -0.061008472 0.09381976 -0.056398835 -0.03929597 0.10018001 0.05048061 -0.20308135 0.02827797 -0.012961721 -0.15325123 0.06680112 -0.11645713 -0.024893394 -0.07851177 -0.1343456 -0.17846678 -0.040945955 0.03419425 0.071554095 -0.027102394 0.081726745 -0.05749315 -0.13298503 -0.037298325 0.1420247 -0.0032752235 -0.021223333 0.09314707 -0.07575864 -0.044293612 -0.110385075 -0.1840437 0.097641975 -0.0021753327 -0.00040074726 -0.10282634 0.10281708 -0.15148537 -0.06895135 -0.0654635 0.099741444 -0.097839326 0.013788568 -0.07647087 0.030586893 -0.113993675 0.022952141 -0.029749995 -0.1412434 -0.028058926 0.09830116 0.051911414 0.031555858 0.026490092 0.08324909 0.054714896 0.017288191 -0.073999934 0.10766991 -0.09231536 -0.16930667 -0.11541925 0.13134347 -0.046206176 0.1189332 0.051410615 -0.1307667 -0.018313585 0.17321704 0.000939158 0.01798686 0.14830631 -0.08132014 0.014494847 0.0031153557 -0.1253543 0.029721422 -0.23070166 -0.05645848 0.24933755 -0.066956505 0.10227661 -0.14055072
15 -0.07469587 0.03237476 -0.17971893 -0.11440415 0.11779094 -0.08437636 0.17757022 -0.13546954 0.008470889 0.045986395 0.07697682 -0.00088899373 -0.108360805 0.06664999 -0.0029075972 0.08292124 0.0005016377 -0.016671218 0.024723146 0.071899675 0.12595974 0.063639656 -0.07108599 -0.043538522 0.08637451 -0.15511407 -0.016496774 -0.06379274 -0.055300966 -0.047406733 -0.11626653 0.09874868 -0.16916645 0.15727258 -0.25103125 -0.0824915 0.1985362 0.07096803 -0.11281708 -0.0013385249 0.13289554 0.07465847 -0.058722075 -0.017926522 -0.1138901 -0.09508136 0.073009774 -0.05988204 -0.02185366 0.16814052 0.06902942 -0.18192485 0.06653342 0.03761602 -0.13094467 0.033940405 -0.10619277 0.0031232769 -0.045754567 -0.1204341 -0.12176871 -0.020610282 0.03224282 0.10481136 -0.00535877 0.096882224 -0.055352125 -0.11022891 -0.04614218 0.15441015 0.05230526 -0.016135063 0.13659993 -0.117875256 -0.12365519 -0.12768883 -0.16374497 0.059578948 0.04045709 0.030374845 -0.10751543 0.13742152 -0.049441673 -0.08285123 -0.096613914 0.05810232 -0.1211335 0.025778916 -0.16053562 0.07754067 -0.12063046 -0.00056640495 0.02272757 -0.045902096 -0.06020853 0.09685047 0.09342605 0.036972284 0.060837686 0.089886226 0.0030501017 0.013708096 -0.09784307 0.07831422 -0.04942079 -0.14873344 -0.14083128 0.12472529 -0.12842502 0.082296066 0.036308415 -0.1439368 0.024784386 0.22287118 0.07258156 0.020597287 0.12043384 -0.03167888 0.03539517 0.024427522 -0.14467782 0.052485544 -0.19819131 -0.09293524 0.20446281 -0.0008304841 0.1048419 -0.14115445
13 -0.1472286 0.0372128 -0.16546433 -0.12415075 0.1997701 -0.11623502 0.17945693 -0.108765766 0.06551028 0.083193414 0.09995714 0.036010902 -0.15840894 0.056888197 -0.00953436 0.1452282 0.028573029 -0.027451934 0.060204376 0.10449724 0.08807492 0.0009983742 -0.04859721 -0.11063344 0.11023889 -0.118077934 -0.06912353 -0.051542643 -0.07324673 -0.02169846 -0.09962898 0.12112965 -0.07723264 0.19630532 -0.2827654 -0.08285634 0.1522869 0.091069445 -0.1345088 0.033241015 0.10735613 -0.015258162 -0.055959962 -0.06893024 -0.048090003 -0.05599262 0.093696564 -0.06157123 -0.037754916 0.10401484 0.049164306 -0.18937342 0.031705186 -0.009909161 -0.14338088 0.069363624 -0.10727358 -0.0182806 -0.07957981 -0.12291606 -0.17475097 -0.038100313 0.030648513 0.063983895 -0.022327742 0.08734261 -0.062292367 -0.13112289 -0.04342032 0.14263041 0.0037528372 -0.015748203 0.09379955 -0.069788285 -0.043188762 -0.11129527 -0.18210977 0.0945726 0.0038761701 0.004707203 -0.098973975 0.103077754 -0.14465779 -0.0823405 -0.06507617 0.10119458 -0.10141511 0.017108694 -0.08083218 0.028683905 -0.11242068 0.020305792 -0.035122644 -0.13688497 -0.024687234 0.10385042 0.051447313 0.025690602 0.020161653 0.08504366 0.052015994 0.014491809 -0.07189773 0.112123325 -0.08691571 -0.16385573 -0.11200319 0.12995927 -0.055918455 0.11650799 0.046417393 -0.12539051 -0.020377522 0.17463252 0.0053020446 0.012007002 0.14217916 -0.07604897 0.015337167 6.455378e-05 -0.12939505 0.019514943 -0.22857858 -0.059534505 0.2360583 -0.061298754 0.091455795 -0.13589159
12 -0.16170372 0.034088984 -0.15954944 -0.13008289 0.21633655 -0.123313345 0.17780845 -0.09625093 0.071982436 0.088737026 0.102610596 0.050393034 -0.1643766 0.05426051 -0.016594667 0.154252 0.038639586 -0.031975526 0.0690869 0.10435678 0.07253717 -0.015226903 -0.043126896 -0.12534088 0.11748342 -0.11341364 -0.08433844 -0.04105227 -0.077908136 -0.016043775 -0.09546428 0.13057975 -0.06180163 0.2167056 -0.29892004 -0.0914881 0.15152156 0.099065885 -0.14450897 0.045909088 0.10989322 -0.038860615 -0.055781998 -0.08166205 -0.024596846 -0.04698438 0.10155063 -0.0581017 -0.043179758 0.087392904 0.041133646 -0.19885787 0.024949856 -0.02783877 -0.14924908 0.07608728 -0.11158529 -0.03052328 -0.08855228 -0.13319752 -0.19223353 -0.049267698 0.035508227 0.05490221 -0.028017608 0.08868427 -0.06745025 -0.14041872 -0.0374524 0.14535634 -0.008330287 -0.01710165 0.08017589 -0.061969742 -0.018526735 -0.10883107 -0.18691126 0.10244175 -0.0074633886 -0.0030635614 -0.10160416 0.09952636 -0.1686525 -0.07592353 -0.05877062 0.10921081 -0.09736848 0.016047515 -0.058342557 0.011438094 -0.11979974 0.021047162 -0.05030778 -0.16099964 -0.016026324 0.10031206 0.046361815 0.023780197 0.010120856 0.086166576 0.07057064 0.020246567 -0.07346581 0.12771179 -0.10186783 -0.17201942 -0.10627143 0.13473085 -0.032810554 0.12641026 0.05443004 -0.120742425 -0.033716537 0.1594842 -0.014771609 0.011568627 0.15290946 -0.08559942 0.009792393 -0.006112943 -0.12618765 0.015937012 -0.2352452 -0.046447285 0.25159243 -0.07933753 0.09461974 -0.13322213
